<?xml version="1.0" encoding="UTF-8"?>
<PMML xmlns="http://www.dmg.org/PMML-4_4" version="4.4.1">
    <Header copyright="Copyright (c) 2021 Software AG" description="Default description">
        <Application name="Nyoka" version="5.0.0"/>
        <Timestamp>2021-09-26 17:04:27.724897</Timestamp>
    </Header>
    <DataDictionary numberOfFields="11">
        <DataField name="Pclass" optype="continuous" dataType="double"/>
        <DataField name="Age" optype="continuous" dataType="double"/>
        <DataField name="SibSp" optype="continuous" dataType="double"/>
        <DataField name="Parch" optype="continuous" dataType="double"/>
        <DataField name="Fare" optype="continuous" dataType="double"/>
        <DataField name="Sex_female" optype="continuous" dataType="double"/>
        <DataField name="Sex_male" optype="continuous" dataType="double"/>
        <DataField name="Embarked_C" optype="continuous" dataType="double"/>
        <DataField name="Embarked_Q" optype="continuous" dataType="double"/>
        <DataField name="Embarked_S" optype="continuous" dataType="double"/>
        <DataField name="Survived" optype="categorical" dataType="integer">
            <Value value="0"/>
            <Value value="1"/>
        </DataField>
    </DataDictionary>
    <MiningModel modelName="XGBoostModel" functionName="classification">
        <MiningSchema>
            <MiningField name="Pclass" usageType="active" optype="continuous" missingValueReplacement="3.0" missingValueTreatment="asMedian"/>
            <MiningField name="Age" usageType="active" optype="continuous" missingValueReplacement="28.0" missingValueTreatment="asMedian"/>
            <MiningField name="SibSp" usageType="active" optype="continuous" missingValueReplacement="0.0" missingValueTreatment="asMedian"/>
            <MiningField name="Parch" usageType="active" optype="continuous" missingValueReplacement="0.0" missingValueTreatment="asMedian"/>
            <MiningField name="Fare" usageType="active" optype="continuous" missingValueReplacement="14.4542" missingValueTreatment="asMedian"/>
            <MiningField name="Sex_female" usageType="active" optype="continuous" missingValueReplacement="0.0" missingValueTreatment="asMedian"/>
            <MiningField name="Sex_male" usageType="active" optype="continuous" missingValueReplacement="1.0" missingValueTreatment="asMedian"/>
            <MiningField name="Embarked_C" usageType="active" optype="continuous" missingValueReplacement="0.0" missingValueTreatment="asMedian"/>
            <MiningField name="Embarked_Q" usageType="active" optype="continuous" missingValueReplacement="0.0" missingValueTreatment="asMedian"/>
            <MiningField name="Embarked_S" usageType="active" optype="continuous" missingValueReplacement="1.0" missingValueTreatment="asMedian"/>
            <MiningField name="Survived" usageType="target" optype="categorical"/>
        </MiningSchema>
        <Output>
            <OutputField name="probability_0" optype="continuous" dataType="double" feature="probability" value="0"/>
            <OutputField name="probability_1" optype="continuous" dataType="double" feature="probability" value="1"/>
            <OutputField name="predicted_Survived" optype="categorical" dataType="integer" feature="predictedValue"/>
        </Output>
        <Segmentation multipleModelMethod="modelChain" missingThreshold="1">
            <Segment id="1" weight="1">
                <True/>
                <MiningModel modelName="MiningModel" functionName="regression">
                    <MiningSchema>
                        <MiningField name="Pclass" usageType="active"/>
                        <MiningField name="Age" usageType="active"/>
                        <MiningField name="SibSp" usageType="active"/>
                        <MiningField name="Parch" usageType="active"/>
                        <MiningField name="Fare" usageType="active"/>
                        <MiningField name="Sex_female" usageType="active"/>
                        <MiningField name="Sex_male" usageType="active"/>
                        <MiningField name="Embarked_C" usageType="active"/>
                        <MiningField name="Embarked_Q" usageType="active"/>
                        <MiningField name="Embarked_S" usageType="active"/>
                    </MiningSchema>
                    <Output>
                        <OutputField name="xgbValue" optype="continuous" dataType="float" feature="predictedValue"/>
                    </Output>
                    <Segmentation multipleModelMethod="sum" missingThreshold="1">
                        <Segment id="1" weight="1">
                            <True/>
                            <TreeModel modelName="DecisionTreeModel" functionName="regression" missingValuePenalty="1.0" noTrueChildStrategy="returnLastPrediction">
                                <MiningSchema>
                                    <MiningField name="Pclass" usageType="active"/>
                                    <MiningField name="Age" usageType="active"/>
                                    <MiningField name="SibSp" usageType="active"/>
                                    <MiningField name="Parch" usageType="active"/>
                                    <MiningField name="Fare" usageType="active"/>
                                    <MiningField name="Sex_female" usageType="active"/>
                                    <MiningField name="Sex_male" usageType="active"/>
                                    <MiningField name="Embarked_C" usageType="active"/>
                                    <MiningField name="Embarked_Q" usageType="active"/>
                                    <MiningField name="Embarked_S" usageType="active"/>
                                </MiningSchema>
                                <Node>
                                    <True/>
                                    <Node>
                                        <SimplePredicate field="Sex_female" operator="lessThan" value="0.5000000000000000"/>
                                        <Node>
                                            <SimplePredicate field="Age" operator="lessThan" value="6.5000000000000000"/>
                                            <Node score="0.458823562">
                                                <SimplePredicate field="SibSp" operator="lessThan" value="3.0000000000000000"/>
                                            </Node>
                                            <Node score="-0.272727281">
                                                <SimplePredicate field="SibSp" operator="greaterOrEqual" value="3.0000000000000000"/>
                                            </Node>
                                        </Node>
                                        <Node>
                                            <SimplePredicate field="Age" operator="greaterOrEqual" value="6.5000000000000000"/>
                                            <Node>
                                                <SimplePredicate field="Fare" operator="lessThan" value="52.2770995999999997"/>
                                                <Node>
                                                    <SimplePredicate field="Pclass" operator="lessThan" value="1.5000000000000000"/>
                                                    <Node>
                                                        <SimplePredicate field="Fare" operator="lessThan" value="30.7500000000000000"/>
                                                        <Node score="-0.230769247">
                                                            <SimplePredicate field="Fare" operator="lessThan" value="29.8500003999999990"/>
                                                        </Node>
                                                        <Node score="0.120000005">
                                                            <SimplePredicate field="Fare" operator="greaterOrEqual" value="29.8500003999999990"/>
                                                        </Node>
                                                    </Node>
                                                    <Node score="-0.420000017">
                                                        <SimplePredicate field="Fare" operator="greaterOrEqual" value="30.7500000000000000"/>
                                                    </Node>
                                                </Node>
                                                <Node>
                                                    <SimplePredicate field="Pclass" operator="greaterOrEqual" value="1.5000000000000000"/>
                                                    <Node>
                                                        <SimplePredicate field="Age" operator="lessThan" value="13.0000000000000000"/>
                                                        <Node score="0.150000006">
                                                            <SimplePredicate field="SibSp" operator="lessThan" value="2.5000000000000000"/>
                                                        </Node>
                                                        <Node score="-0.360000014">
                                                            <SimplePredicate field="SibSp" operator="greaterOrEqual" value="2.5000000000000000"/>
                                                        </Node>
                                                    </Node>
                                                    <Node score="-0.465306133">
                                                        <SimplePredicate field="Age" operator="greaterOrEqual" value="13.0000000000000000"/>
                                                    </Node>
                                                </Node>
                                            </Node>
                                            <Node>
                                                <SimplePredicate field="Fare" operator="greaterOrEqual" value="52.2770995999999997"/>
                                                <Node>
                                                    <SimplePredicate field="Fare" operator="lessThan" value="59.0875015000000019"/>
                                                    <Node score="0.0545454584">
                                                        <SimplePredicate field="Age" operator="lessThan" value="29.5000000000000000"/>
                                                    </Node>
                                                    <Node score="0.200000018">
                                                        <SimplePredicate field="Age" operator="greaterOrEqual" value="29.5000000000000000"/>
                                                    </Node>
                                                </Node>
                                                <Node>
                                                    <SimplePredicate field="Fare" operator="greaterOrEqual" value="59.0875015000000019"/>
                                                    <Node score="-0.450000018">
                                                        <SimplePredicate field="Embarked_C" operator="lessThan" value="0.5000000000000000"/>
                                                    </Node>
                                                    <Node>
                                                        <SimplePredicate field="Embarked_C" operator="greaterOrEqual" value="0.5000000000000000"/>
                                                        <Node score="-0.0545454584">
                                                            <SimplePredicate field="Age" operator="lessThan" value="31.5000000000000000"/>
                                                        </Node>
                                                        <Node score="0.163636371">
                                                            <SimplePredicate field="Age" operator="greaterOrEqual" value="31.5000000000000000"/>
                                                        </Node>
                                                    </Node>
                                                </Node>
                                            </Node>
                                        </Node>
                                    </Node>
                                    <Node>
                                        <SimplePredicate field="Sex_female" operator="greaterOrEqual" value="0.5000000000000000"/>
                                        <Node score="0.536842108">
                                            <SimplePredicate field="Pclass" operator="lessThan" value="2.5000000000000000"/>
                                        </Node>
                                        <Node>
                                            <SimplePredicate field="Pclass" operator="greaterOrEqual" value="2.5000000000000000"/>
                                            <Node>
                                                <SimplePredicate field="Fare" operator="lessThan" value="23.3500003999999990"/>
                                                <Node>
                                                    <SimplePredicate field="Embarked_S" operator="lessThan" value="0.5000000000000000"/>
                                                    <Node>
                                                        <SimplePredicate field="Fare" operator="lessThan" value="15.3728999999999996"/>
                                                        <Node score="0.25">
                                                            <SimplePredicate field="Fare" operator="lessThan" value="8.0833492299999996"/>
                                                        </Node>
                                                        <Node score="-0.200000018">
                                                            <SimplePredicate field="Fare" operator="greaterOrEqual" value="8.0833492299999996"/>
                                                        </Node>
                                                    </Node>
                                                    <Node score="0.41538465">
                                                        <SimplePredicate field="Fare" operator="greaterOrEqual" value="15.3728999999999996"/>
                                                    </Node>
                                                </Node>
                                                <Node>
                                                    <SimplePredicate field="Embarked_S" operator="greaterOrEqual" value="0.5000000000000000"/>
                                                    <Node>
                                                        <SimplePredicate field="Fare" operator="lessThan" value="10.8249998000000005"/>
                                                        <Node score="0.300000012">
                                                            <SimplePredicate field="Fare" operator="lessThan" value="7.6999998099999996"/>
                                                        </Node>
                                                        <Node score="-0.288888901">
                                                            <SimplePredicate field="Fare" operator="greaterOrEqual" value="7.6999998099999996"/>
                                                        </Node>
                                                    </Node>
                                                    <Node>
                                                        <SimplePredicate field="Fare" operator="greaterOrEqual" value="10.8249998000000005"/>
                                                        <Node score="0.247058839">
                                                            <SimplePredicate field="Fare" operator="lessThan" value="17.7000008000000015"/>
                                                        </Node>
                                                        <Node score="-0.100000009">
                                                            <SimplePredicate field="Fare" operator="greaterOrEqual" value="17.7000008000000015"/>
                                                        </Node>
                                                    </Node>
                                                </Node>
                                            </Node>
                                            <Node score="-0.436363667">
                                                <SimplePredicate field="Fare" operator="greaterOrEqual" value="23.3500003999999990"/>
                                            </Node>
                                        </Node>
                                    </Node>
                                </Node>
                            </TreeModel>
                        </Segment>
                        <Segment id="2" weight="1">
                            <True/>
                            <TreeModel modelName="DecisionTreeModel" functionName="regression" missingValuePenalty="1.0" noTrueChildStrategy="returnLastPrediction">
                                <MiningSchema>
                                    <MiningField name="Pclass" usageType="active"/>
                                    <MiningField name="Age" usageType="active"/>
                                    <MiningField name="SibSp" usageType="active"/>
                                    <MiningField name="Parch" usageType="active"/>
                                    <MiningField name="Fare" usageType="active"/>
                                    <MiningField name="Sex_female" usageType="active"/>
                                    <MiningField name="Sex_male" usageType="active"/>
                                    <MiningField name="Embarked_C" usageType="active"/>
                                    <MiningField name="Embarked_Q" usageType="active"/>
                                    <MiningField name="Embarked_S" usageType="active"/>
                                </MiningSchema>
                                <Node>
                                    <True/>
                                    <Node>
                                        <SimplePredicate field="Sex_female" operator="lessThan" value="0.5000000000000000"/>
                                        <Node>
                                            <SimplePredicate field="Age" operator="lessThan" value="6.5000000000000000"/>
                                            <Node score="0.369746506">
                                                <SimplePredicate field="SibSp" operator="lessThan" value="3.0000000000000000"/>
                                            </Node>
                                            <Node score="-0.223594904">
                                                <SimplePredicate field="SibSp" operator="greaterOrEqual" value="3.0000000000000000"/>
                                            </Node>
                                        </Node>
                                        <Node>
                                            <SimplePredicate field="Age" operator="greaterOrEqual" value="6.5000000000000000"/>
                                            <Node>
                                                <SimplePredicate field="Fare" operator="lessThan" value="52.2770995999999997"/>
                                                <Node>
                                                    <SimplePredicate field="Pclass" operator="lessThan" value="1.5000000000000000"/>
                                                    <Node>
                                                        <SimplePredicate field="Fare" operator="lessThan" value="30.7500000000000000"/>
                                                        <Node score="-0.321188003">
                                                            <SimplePredicate field="Fare" operator="lessThan" value="26.1437491999999985"/>
                                                        </Node>
                                                        <Node score="-0.0121447667">
                                                            <SimplePredicate field="Fare" operator="greaterOrEqual" value="26.1437491999999985"/>
                                                        </Node>
                                                    </Node>
                                                    <Node score="-0.33203429">
                                                        <SimplePredicate field="Fare" operator="greaterOrEqual" value="30.7500000000000000"/>
                                                    </Node>
                                                </Node>
                                                <Node>
                                                    <SimplePredicate field="Pclass" operator="greaterOrEqual" value="1.5000000000000000"/>
                                                    <Node score="-0.140605554">
                                                        <SimplePredicate field="Age" operator="lessThan" value="13.0000000000000000"/>
                                                    </Node>
                                                    <Node>
                                                        <SimplePredicate field="Age" operator="greaterOrEqual" value="13.0000000000000000"/>
                                                        <Node score="-0.358821452">
                                                            <SimplePredicate field="Embarked_C" operator="lessThan" value="0.5000000000000000"/>
                                                        </Node>
                                                        <Node score="-0.235691056">
                                                            <SimplePredicate field="Embarked_C" operator="greaterOrEqual" value="0.5000000000000000"/>
                                                        </Node>
                                                    </Node>
                                                </Node>
                                            </Node>
                                            <Node>
                                                <SimplePredicate field="Fare" operator="greaterOrEqual" value="52.2770995999999997"/>
                                                <Node>
                                                    <SimplePredicate field="Fare" operator="lessThan" value="59.0875015000000019"/>
                                                    <Node score="0.0441556834">
                                                        <SimplePredicate field="Age" operator="lessThan" value="29.5000000000000000"/>
                                                    </Node>
                                                    <Node score="0.167702839">
                                                        <SimplePredicate field="Age" operator="greaterOrEqual" value="29.5000000000000000"/>
                                                    </Node>
                                                </Node>
                                                <Node>
                                                    <SimplePredicate field="Fare" operator="greaterOrEqual" value="59.0875015000000019"/>
                                                    <Node score="-0.353796929">
                                                        <SimplePredicate field="Embarked_C" operator="lessThan" value="0.5000000000000000"/>
                                                    </Node>
                                                    <Node>
                                                        <SimplePredicate field="Embarked_C" operator="greaterOrEqual" value="0.5000000000000000"/>
                                                        <Node score="0.150682271">
                                                            <SimplePredicate field="Fare" operator="lessThan" value="99.9896011000000016"/>
                                                        </Node>
                                                        <Node score="-0.0620847903">
                                                            <SimplePredicate field="Fare" operator="greaterOrEqual" value="99.9896011000000016"/>
                                                        </Node>
                                                    </Node>
                                                </Node>
                                            </Node>
                                        </Node>
                                    </Node>
                                    <Node>
                                        <SimplePredicate field="Sex_female" operator="greaterOrEqual" value="0.5000000000000000"/>
                                        <Node>
                                            <SimplePredicate field="Pclass" operator="lessThan" value="2.5000000000000000"/>
                                            <Node score="0.11708539">
                                                <SimplePredicate field="Age" operator="lessThan" value="4.5000000000000000"/>
                                            </Node>
                                            <Node score="0.421326518">
                                                <SimplePredicate field="Age" operator="greaterOrEqual" value="4.5000000000000000"/>
                                            </Node>
                                        </Node>
                                        <Node>
                                            <SimplePredicate field="Pclass" operator="greaterOrEqual" value="2.5000000000000000"/>
                                            <Node>
                                                <SimplePredicate field="Fare" operator="lessThan" value="23.3500003999999990"/>
                                                <Node>
                                                    <SimplePredicate field="Fare" operator="lessThan" value="15.3728999999999996"/>
                                                    <Node>
                                                        <SimplePredicate field="Fare" operator="lessThan" value="8.0396003700000005"/>
                                                        <Node score="0.243594706">
                                                            <SimplePredicate field="Fare" operator="lessThan" value="7.7437500999999997"/>
                                                        </Node>
                                                        <Node score="0.0455059707">
                                                            <SimplePredicate field="Fare" operator="greaterOrEqual" value="7.7437500999999997"/>
                                                        </Node>
                                                    </Node>
                                                    <Node>
                                                        <SimplePredicate field="Fare" operator="greaterOrEqual" value="8.0396003700000005"/>
                                                        <Node score="-0.361476719">
                                                            <SimplePredicate field="Parch" operator="lessThan" value="0.5000000000000000"/>
                                                        </Node>
                                                        <Node score="0.0839723647">
                                                            <SimplePredicate field="Parch" operator="greaterOrEqual" value="0.5000000000000000"/>
                                                        </Node>
                                                    </Node>
                                                </Node>
                                                <Node>
                                                    <SimplePredicate field="Fare" operator="greaterOrEqual" value="15.3728999999999996"/>
                                                    <Node score="0.275289565">
                                                        <SimplePredicate field="Fare" operator="lessThan" value="20.7999991999999985"/>
                                                    </Node>
                                                    <Node score="-0.0126999421">
                                                        <SimplePredicate field="Fare" operator="greaterOrEqual" value="20.7999991999999985"/>
                                                    </Node>
                                                </Node>
                                            </Node>
                                            <Node score="-0.343904555">
                                                <SimplePredicate field="Fare" operator="greaterOrEqual" value="23.3500003999999990"/>
                                            </Node>
                                        </Node>
                                    </Node>
                                </Node>
                            </TreeModel>
                        </Segment>
                        <Segment id="3" weight="1">
                            <True/>
                            <TreeModel modelName="DecisionTreeModel" functionName="regression" missingValuePenalty="1.0" noTrueChildStrategy="returnLastPrediction">
                                <MiningSchema>
                                    <MiningField name="Pclass" usageType="active"/>
                                    <MiningField name="Age" usageType="active"/>
                                    <MiningField name="SibSp" usageType="active"/>
                                    <MiningField name="Parch" usageType="active"/>
                                    <MiningField name="Fare" usageType="active"/>
                                    <MiningField name="Sex_female" usageType="active"/>
                                    <MiningField name="Sex_male" usageType="active"/>
                                    <MiningField name="Embarked_C" usageType="active"/>
                                    <MiningField name="Embarked_Q" usageType="active"/>
                                    <MiningField name="Embarked_S" usageType="active"/>
                                </MiningSchema>
                                <Node>
                                    <True/>
                                    <Node>
                                        <SimplePredicate field="Sex_female" operator="lessThan" value="0.5000000000000000"/>
                                        <Node>
                                            <SimplePredicate field="Age" operator="lessThan" value="6.5000000000000000"/>
                                            <Node score="0.316078067">
                                                <SimplePredicate field="SibSp" operator="lessThan" value="3.0000000000000000"/>
                                            </Node>
                                            <Node score="-0.186907485">
                                                <SimplePredicate field="SibSp" operator="greaterOrEqual" value="3.0000000000000000"/>
                                            </Node>
                                        </Node>
                                        <Node>
                                            <SimplePredicate field="Age" operator="greaterOrEqual" value="6.5000000000000000"/>
                                            <Node>
                                                <SimplePredicate field="Fare" operator="lessThan" value="52.2770995999999997"/>
                                                <Node>
                                                    <SimplePredicate field="Embarked_C" operator="lessThan" value="0.5000000000000000"/>
                                                    <Node>
                                                        <SimplePredicate field="Age" operator="lessThan" value="61.5000000000000000"/>
                                                        <Node score="-0.100008748">
                                                            <SimplePredicate field="Age" operator="lessThan" value="10.0000000000000000"/>
                                                        </Node>
                                                        <Node score="-0.282336473">
                                                            <SimplePredicate field="Age" operator="greaterOrEqual" value="10.0000000000000000"/>
                                                        </Node>
                                                    </Node>
                                                    <Node score="-0.0724749789">
                                                        <SimplePredicate field="Age" operator="greaterOrEqual" value="61.5000000000000000"/>
                                                    </Node>
                                                </Node>
                                                <Node>
                                                    <SimplePredicate field="Embarked_C" operator="greaterOrEqual" value="0.5000000000000000"/>
                                                    <Node score="0.0840887725">
                                                        <SimplePredicate field="Age" operator="lessThan" value="22.5000000000000000"/>
                                                    </Node>
                                                    <Node>
                                                        <SimplePredicate field="Age" operator="greaterOrEqual" value="22.5000000000000000"/>
                                                        <Node score="-0.239129096">
                                                            <SimplePredicate field="Fare" operator="lessThan" value="30.2854004000000003"/>
                                                        </Node>
                                                        <Node score="-0.0193440113">
                                                            <SimplePredicate field="Fare" operator="greaterOrEqual" value="30.2854004000000003"/>
                                                        </Node>
                                                    </Node>
                                                </Node>
                                            </Node>
                                            <Node>
                                                <SimplePredicate field="Fare" operator="greaterOrEqual" value="52.2770995999999997"/>
                                                <Node>
                                                    <SimplePredicate field="Fare" operator="lessThan" value="59.0875015000000019"/>
                                                    <Node score="0.0357731394">
                                                        <SimplePredicate field="Age" operator="lessThan" value="29.5000000000000000"/>
                                                    </Node>
                                                    <Node score="0.14200519">
                                                        <SimplePredicate field="Age" operator="greaterOrEqual" value="29.5000000000000000"/>
                                                    </Node>
                                                </Node>
                                                <Node>
                                                    <SimplePredicate field="Fare" operator="greaterOrEqual" value="59.0875015000000019"/>
                                                    <Node>
                                                        <SimplePredicate field="Embarked_C" operator="lessThan" value="0.5000000000000000"/>
                                                        <Node score="-0.330984592">
                                                            <SimplePredicate field="Fare" operator="lessThan" value="86.7375030999999979"/>
                                                        </Node>
                                                        <Node score="-0.0792169124">
                                                            <SimplePredicate field="Fare" operator="greaterOrEqual" value="86.7375030999999979"/>
                                                        </Node>
                                                    </Node>
                                                    <Node>
                                                        <SimplePredicate field="Embarked_C" operator="greaterOrEqual" value="0.5000000000000000"/>
                                                        <Node score="0.12293043">
                                                            <SimplePredicate field="Fare" operator="lessThan" value="99.9896011000000016"/>
                                                        </Node>
                                                        <Node score="-0.0502354242">
                                                            <SimplePredicate field="Fare" operator="greaterOrEqual" value="99.9896011000000016"/>
                                                        </Node>
                                                    </Node>
                                                </Node>
                                            </Node>
                                        </Node>
                                    </Node>
                                    <Node>
                                        <SimplePredicate field="Sex_female" operator="greaterOrEqual" value="0.5000000000000000"/>
                                        <Node>
                                            <SimplePredicate field="Pclass" operator="lessThan" value="2.5000000000000000"/>
                                            <Node score="0.36744234">
                                                <SimplePredicate field="Fare" operator="lessThan" value="149.0354000000000099"/>
                                            </Node>
                                            <Node>
                                                <SimplePredicate field="Fare" operator="greaterOrEqual" value="149.0354000000000099"/>
                                                <Node score="0.255619437">
                                                    <SimplePredicate field="Parch" operator="lessThan" value="1.5000000000000000"/>
                                                </Node>
                                                <Node score="-0.0812569112">
                                                    <SimplePredicate field="Parch" operator="greaterOrEqual" value="1.5000000000000000"/>
                                                </Node>
                                            </Node>
                                        </Node>
                                        <Node>
                                            <SimplePredicate field="Pclass" operator="greaterOrEqual" value="2.5000000000000000"/>
                                            <Node>
                                                <SimplePredicate field="Fare" operator="lessThan" value="23.3500003999999990"/>
                                                <Node>
                                                    <SimplePredicate field="Embarked_S" operator="lessThan" value="0.5000000000000000"/>
                                                    <Node>
                                                        <SimplePredicate field="Fare" operator="lessThan" value="15.3728999999999996"/>
                                                        <Node score="0.158029675">
                                                            <SimplePredicate field="Fare" operator="lessThan" value="13.9354496000000001"/>
                                                        </Node>
                                                        <Node score="-0.18465583">
                                                            <SimplePredicate field="Fare" operator="greaterOrEqual" value="13.9354496000000001"/>
                                                        </Node>
                                                    </Node>
                                                    <Node score="0.310017586">
                                                        <SimplePredicate field="Fare" operator="greaterOrEqual" value="15.3728999999999996"/>
                                                    </Node>
                                                </Node>
                                                <Node>
                                                    <SimplePredicate field="Embarked_S" operator="greaterOrEqual" value="0.5000000000000000"/>
                                                    <Node>
                                                        <SimplePredicate field="Parch" operator="lessThan" value="0.5000000000000000"/>
                                                        <Node score="0.142000526">
                                                            <SimplePredicate field="Fare" operator="lessThan" value="7.7624998099999996"/>
                                                        </Node>
                                                        <Node score="-0.173768103">
                                                            <SimplePredicate field="Fare" operator="greaterOrEqual" value="7.7624998099999996"/>
                                                        </Node>
                                                    </Node>
                                                    <Node>
                                                        <SimplePredicate field="Parch" operator="greaterOrEqual" value="0.5000000000000000"/>
                                                        <Node score="0.186009258">
                                                            <SimplePredicate field="Age" operator="lessThan" value="27.5000000000000000"/>
                                                        </Node>
                                                        <Node score="-0.0791888684">
                                                            <SimplePredicate field="Age" operator="greaterOrEqual" value="27.5000000000000000"/>
                                                        </Node>
                                                    </Node>
                                                </Node>
                                            </Node>
                                            <Node>
                                                <SimplePredicate field="Fare" operator="greaterOrEqual" value="23.3500003999999990"/>
                                                <Node score="-0.0824994221">
                                                    <SimplePredicate field="Age" operator="lessThan" value="9.5000000000000000"/>
                                                </Node>
                                                <Node score="-0.322403312">
                                                    <SimplePredicate field="Age" operator="greaterOrEqual" value="9.5000000000000000"/>
                                                </Node>
                                            </Node>
                                        </Node>
                                    </Node>
                                </Node>
                            </TreeModel>
                        </Segment>
                        <Segment id="4" weight="1">
                            <True/>
                            <TreeModel modelName="DecisionTreeModel" functionName="regression" missingValuePenalty="1.0" noTrueChildStrategy="returnLastPrediction">
                                <MiningSchema>
                                    <MiningField name="Pclass" usageType="active"/>
                                    <MiningField name="Age" usageType="active"/>
                                    <MiningField name="SibSp" usageType="active"/>
                                    <MiningField name="Parch" usageType="active"/>
                                    <MiningField name="Fare" usageType="active"/>
                                    <MiningField name="Sex_female" usageType="active"/>
                                    <MiningField name="Sex_male" usageType="active"/>
                                    <MiningField name="Embarked_C" usageType="active"/>
                                    <MiningField name="Embarked_Q" usageType="active"/>
                                    <MiningField name="Embarked_S" usageType="active"/>
                                </MiningSchema>
                                <Node>
                                    <True/>
                                    <Node>
                                        <SimplePredicate field="Sex_female" operator="lessThan" value="0.5000000000000000"/>
                                        <Node>
                                            <SimplePredicate field="Age" operator="lessThan" value="6.5000000000000000"/>
                                            <Node score="0.278526634">
                                                <SimplePredicate field="SibSp" operator="lessThan" value="3.0000000000000000"/>
                                            </Node>
                                            <Node score="-0.158019379">
                                                <SimplePredicate field="SibSp" operator="greaterOrEqual" value="3.0000000000000000"/>
                                            </Node>
                                        </Node>
                                        <Node>
                                            <SimplePredicate field="Age" operator="greaterOrEqual" value="6.5000000000000000"/>
                                            <Node>
                                                <SimplePredicate field="Pclass" operator="lessThan" value="1.5000000000000000"/>
                                                <Node>
                                                    <SimplePredicate field="Age" operator="lessThan" value="27.5000000000000000"/>
                                                    <Node score="-0.181723386">
                                                        <SimplePredicate field="Age" operator="lessThan" value="23.5000000000000000"/>
                                                    </Node>
                                                    <Node score="0.317059785">
                                                        <SimplePredicate field="Age" operator="greaterOrEqual" value="23.5000000000000000"/>
                                                    </Node>
                                                </Node>
                                                <Node>
                                                    <SimplePredicate field="Age" operator="greaterOrEqual" value="27.5000000000000000"/>
                                                    <Node score="-0.265680224">
                                                        <SimplePredicate field="Age" operator="lessThan" value="30.5000000000000000"/>
                                                    </Node>
                                                    <Node>
                                                        <SimplePredicate field="Age" operator="greaterOrEqual" value="30.5000000000000000"/>
                                                        <Node score="0.108119242">
                                                            <SimplePredicate field="Age" operator="lessThan" value="38.5000000000000000"/>
                                                        </Node>
                                                        <Node score="-0.1214858">
                                                            <SimplePredicate field="Age" operator="greaterOrEqual" value="38.5000000000000000"/>
                                                        </Node>
                                                    </Node>
                                                </Node>
                                            </Node>
                                            <Node>
                                                <SimplePredicate field="Pclass" operator="greaterOrEqual" value="1.5000000000000000"/>
                                                <Node>
                                                    <SimplePredicate field="Age" operator="lessThan" value="32.2500000000000000"/>
                                                    <Node>
                                                        <SimplePredicate field="Age" operator="lessThan" value="31.5000000000000000"/>
                                                        <Node score="-0.238508612">
                                                            <SimplePredicate field="Embarked_C" operator="lessThan" value="0.5000000000000000"/>
                                                        </Node>
                                                        <Node score="-0.0938861296">
                                                            <SimplePredicate field="Embarked_C" operator="greaterOrEqual" value="0.5000000000000000"/>
                                                        </Node>
                                                    </Node>
                                                    <Node score="0.20431082">
                                                        <SimplePredicate field="Age" operator="greaterOrEqual" value="31.5000000000000000"/>
                                                    </Node>
                                                </Node>
                                                <Node>
                                                    <SimplePredicate field="Age" operator="greaterOrEqual" value="32.2500000000000000"/>
                                                    <Node score="-0.294740617">
                                                        <SimplePredicate field="Age" operator="lessThan" value="59.5000000000000000"/>
                                                    </Node>
                                                    <Node score="-0.0608267449">
                                                        <SimplePredicate field="Age" operator="greaterOrEqual" value="59.5000000000000000"/>
                                                    </Node>
                                                </Node>
                                            </Node>
                                        </Node>
                                    </Node>
                                    <Node>
                                        <SimplePredicate field="Sex_female" operator="greaterOrEqual" value="0.5000000000000000"/>
                                        <Node>
                                            <SimplePredicate field="Pclass" operator="lessThan" value="2.5000000000000000"/>
                                            <Node score="0.324020147">
                                                <SimplePredicate field="Fare" operator="lessThan" value="149.0354000000000099"/>
                                            </Node>
                                            <Node>
                                                <SimplePredicate field="Fare" operator="greaterOrEqual" value="149.0354000000000099"/>
                                                <Node score="0.227834538">
                                                    <SimplePredicate field="Parch" operator="lessThan" value="1.5000000000000000"/>
                                                </Node>
                                                <Node score="-0.0675709471">
                                                    <SimplePredicate field="Parch" operator="greaterOrEqual" value="1.5000000000000000"/>
                                                </Node>
                                            </Node>
                                        </Node>
                                        <Node>
                                            <SimplePredicate field="Pclass" operator="greaterOrEqual" value="2.5000000000000000"/>
                                            <Node>
                                                <SimplePredicate field="Fare" operator="lessThan" value="23.3500003999999990"/>
                                                <Node>
                                                    <SimplePredicate field="Fare" operator="lessThan" value="14.8728999999999996"/>
                                                    <Node>
                                                        <SimplePredicate field="Fare" operator="lessThan" value="13.9083500000000004"/>
                                                        <Node score="-0.00656526024">
                                                            <SimplePredicate field="Fare" operator="lessThan" value="10.8249998000000005"/>
                                                        </Node>
                                                        <Node score="0.272243381">
                                                            <SimplePredicate field="Fare" operator="greaterOrEqual" value="10.8249998000000005"/>
                                                        </Node>
                                                    </Node>
                                                    <Node score="-0.298930705">
                                                        <SimplePredicate field="Fare" operator="greaterOrEqual" value="13.9083500000000004"/>
                                                    </Node>
                                                </Node>
                                                <Node>
                                                    <SimplePredicate field="Fare" operator="greaterOrEqual" value="14.8728999999999996"/>
                                                    <Node>
                                                        <SimplePredicate field="Fare" operator="lessThan" value="20.7999991999999985"/>
                                                        <Node score="0.0801040083">
                                                            <SimplePredicate field="Age" operator="lessThan" value="27.0000000000000000"/>
                                                        </Node>
                                                        <Node score="0.241902068">
                                                            <SimplePredicate field="Age" operator="greaterOrEqual" value="27.0000000000000000"/>
                                                        </Node>
                                                    </Node>
                                                    <Node score="-0.0429567918">
                                                        <SimplePredicate field="Fare" operator="greaterOrEqual" value="20.7999991999999985"/>
                                                    </Node>
                                                </Node>
                                            </Node>
                                            <Node>
                                                <SimplePredicate field="Fare" operator="greaterOrEqual" value="23.3500003999999990"/>
                                                <Node score="-0.0710272714">
                                                    <SimplePredicate field="Age" operator="lessThan" value="9.5000000000000000"/>
                                                </Node>
                                                <Node score="-0.283181518">
                                                    <SimplePredicate field="Age" operator="greaterOrEqual" value="9.5000000000000000"/>
                                                </Node>
                                            </Node>
                                        </Node>
                                    </Node>
                                </Node>
                            </TreeModel>
                        </Segment>
                        <Segment id="5" weight="1">
                            <True/>
                            <TreeModel modelName="DecisionTreeModel" functionName="regression" missingValuePenalty="1.0" noTrueChildStrategy="returnLastPrediction">
                                <MiningSchema>
                                    <MiningField name="Pclass" usageType="active"/>
                                    <MiningField name="Age" usageType="active"/>
                                    <MiningField name="SibSp" usageType="active"/>
                                    <MiningField name="Parch" usageType="active"/>
                                    <MiningField name="Fare" usageType="active"/>
                                    <MiningField name="Sex_female" usageType="active"/>
                                    <MiningField name="Sex_male" usageType="active"/>
                                    <MiningField name="Embarked_C" usageType="active"/>
                                    <MiningField name="Embarked_Q" usageType="active"/>
                                    <MiningField name="Embarked_S" usageType="active"/>
                                </MiningSchema>
                                <Node>
                                    <True/>
                                    <Node>
                                        <SimplePredicate field="Sex_female" operator="lessThan" value="0.5000000000000000"/>
                                        <Node>
                                            <SimplePredicate field="Age" operator="lessThan" value="6.5000000000000000"/>
                                            <Node score="0.249581799">
                                                <SimplePredicate field="SibSp" operator="lessThan" value="3.0000000000000000"/>
                                            </Node>
                                            <Node score="-0.13449125">
                                                <SimplePredicate field="SibSp" operator="greaterOrEqual" value="3.0000000000000000"/>
                                            </Node>
                                        </Node>
                                        <Node>
                                            <SimplePredicate field="Age" operator="greaterOrEqual" value="6.5000000000000000"/>
                                            <Node>
                                                <SimplePredicate field="Embarked_C" operator="lessThan" value="0.5000000000000000"/>
                                                <Node>
                                                    <SimplePredicate field="Age" operator="lessThan" value="30.5000000000000000"/>
                                                    <Node>
                                                        <SimplePredicate field="Fare" operator="lessThan" value="7.7979001999999999"/>
                                                        <Node score="-0.193908021">
                                                            <SimplePredicate field="Fare" operator="lessThan" value="7.7458500900000002"/>
                                                        </Node>
                                                        <Node score="0.112038359">
                                                            <SimplePredicate field="Fare" operator="greaterOrEqual" value="7.7458500900000002"/>
                                                        </Node>
                                                    </Node>
                                                    <Node>
                                                        <SimplePredicate field="Fare" operator="greaterOrEqual" value="7.7979001999999999"/>
                                                        <Node score="-0.0408057719">
                                                            <SimplePredicate field="Age" operator="lessThan" value="10.0000000000000000"/>
                                                        </Node>
                                                        <Node score="-0.24625881">
                                                            <SimplePredicate field="Age" operator="greaterOrEqual" value="10.0000000000000000"/>
                                                        </Node>
                                                    </Node>
                                                </Node>
                                                <Node>
                                                    <SimplePredicate field="Age" operator="greaterOrEqual" value="30.5000000000000000"/>
                                                    <Node>
                                                        <SimplePredicate field="Age" operator="lessThan" value="32.5000000000000000"/>
                                                        <Node score="0.181541234">
                                                            <SimplePredicate field="Fare" operator="lessThan" value="8.2062501900000004"/>
                                                        </Node>
                                                        <Node score="0.00833660178">
                                                            <SimplePredicate field="Fare" operator="greaterOrEqual" value="8.2062501900000004"/>
                                                        </Node>
                                                    </Node>
                                                    <Node>
                                                        <SimplePredicate field="Age" operator="greaterOrEqual" value="32.5000000000000000"/>
                                                        <Node score="-0.236354053">
                                                            <SimplePredicate field="Fare" operator="lessThan" value="26.2687491999999985"/>
                                                        </Node>
                                                        <Node score="-0.0786540732">
                                                            <SimplePredicate field="Fare" operator="greaterOrEqual" value="26.2687491999999985"/>
                                                        </Node>
                                                    </Node>
                                                </Node>
                                            </Node>
                                            <Node>
                                                <SimplePredicate field="Embarked_C" operator="greaterOrEqual" value="0.5000000000000000"/>
                                                <Node score="-0.168233559">
                                                    <SimplePredicate field="Fare" operator="lessThan" value="9.9521007499999996"/>
                                                </Node>
                                                <Node>
                                                    <SimplePredicate field="Fare" operator="greaterOrEqual" value="9.9521007499999996"/>
                                                    <Node score="0.151677936">
                                                        <SimplePredicate field="Fare" operator="lessThan" value="20.2333488000000017"/>
                                                    </Node>
                                                    <Node>
                                                        <SimplePredicate field="Fare" operator="greaterOrEqual" value="20.2333488000000017"/>
                                                        <Node score="-0.185581729">
                                                            <SimplePredicate field="Fare" operator="lessThan" value="30.2854004000000003"/>
                                                        </Node>
                                                        <Node score="0.0542428829">
                                                            <SimplePredicate field="Fare" operator="greaterOrEqual" value="30.2854004000000003"/>
                                                        </Node>
                                                    </Node>
                                                </Node>
                                            </Node>
                                        </Node>
                                    </Node>
                                    <Node>
                                        <SimplePredicate field="Sex_female" operator="greaterOrEqual" value="0.5000000000000000"/>
                                        <Node>
                                            <SimplePredicate field="Pclass" operator="lessThan" value="2.5000000000000000"/>
                                            <Node>
                                                <SimplePredicate field="Fare" operator="lessThan" value="149.0354000000000099"/>
                                                <Node score="0.306533188">
                                                    <SimplePredicate field="Age" operator="lessThan" value="49.5000000000000000"/>
                                                </Node>
                                                <Node score="0.106844425">
                                                    <SimplePredicate field="Age" operator="greaterOrEqual" value="49.5000000000000000"/>
                                                </Node>
                                            </Node>
                                            <Node>
                                                <SimplePredicate field="Fare" operator="greaterOrEqual" value="149.0354000000000099"/>
                                                <Node score="-0.0612269118">
                                                    <SimplePredicate field="Fare" operator="lessThan" value="188.1020969999999863"/>
                                                </Node>
                                                <Node score="0.214455873">
                                                    <SimplePredicate field="Fare" operator="greaterOrEqual" value="188.1020969999999863"/>
                                                </Node>
                                            </Node>
                                        </Node>
                                        <Node>
                                            <SimplePredicate field="Pclass" operator="greaterOrEqual" value="2.5000000000000000"/>
                                            <Node>
                                                <SimplePredicate field="Embarked_S" operator="lessThan" value="0.5000000000000000"/>
                                                <Node>
                                                    <SimplePredicate field="Fare" operator="lessThan" value="15.3728999999999996"/>
                                                    <Node>
                                                        <SimplePredicate field="Fare" operator="lessThan" value="13.9354496000000001"/>
                                                        <Node score="0.256302953">
                                                            <SimplePredicate field="Age" operator="lessThan" value="17.0000000000000000"/>
                                                        </Node>
                                                        <Node score="0.0368582122">
                                                            <SimplePredicate field="Age" operator="greaterOrEqual" value="17.0000000000000000"/>
                                                        </Node>
                                                    </Node>
                                                    <Node score="-0.143840551">
                                                        <SimplePredicate field="Fare" operator="greaterOrEqual" value="13.9354496000000001"/>
                                                    </Node>
                                                </Node>
                                                <Node score="0.259996206">
                                                    <SimplePredicate field="Fare" operator="greaterOrEqual" value="15.3728999999999996"/>
                                                </Node>
                                            </Node>
                                            <Node>
                                                <SimplePredicate field="Embarked_S" operator="greaterOrEqual" value="0.5000000000000000"/>
                                                <Node>
                                                    <SimplePredicate field="Fare" operator="lessThan" value="20.7999991999999985"/>
                                                    <Node>
                                                        <SimplePredicate field="Parch" operator="lessThan" value="0.5000000000000000"/>
                                                        <Node score="0.122233026">
                                                            <SimplePredicate field="Fare" operator="lessThan" value="7.7624998099999996"/>
                                                        </Node>
                                                        <Node score="-0.1436809">
                                                            <SimplePredicate field="Fare" operator="greaterOrEqual" value="7.7624998099999996"/>
                                                        </Node>
                                                    </Node>
                                                    <Node score="0.158271939">
                                                        <SimplePredicate field="Parch" operator="greaterOrEqual" value="0.5000000000000000"/>
                                                    </Node>
                                                </Node>
                                                <Node>
                                                    <SimplePredicate field="Fare" operator="greaterOrEqual" value="20.7999991999999985"/>
                                                    <Node score="0.0196950138">
                                                        <SimplePredicate field="Age" operator="lessThan" value="6.5000000000000000"/>
                                                    </Node>
                                                    <Node score="-0.309960067">
                                                        <SimplePredicate field="Age" operator="greaterOrEqual" value="6.5000000000000000"/>
                                                    </Node>
                                                </Node>
                                            </Node>
                                        </Node>
                                    </Node>
                                </Node>
                            </TreeModel>
                        </Segment>
                        <Segment id="6" weight="1">
                            <True/>
                            <TreeModel modelName="DecisionTreeModel" functionName="regression" missingValuePenalty="1.0" noTrueChildStrategy="returnLastPrediction">
                                <MiningSchema>
                                    <MiningField name="Pclass" usageType="active"/>
                                    <MiningField name="Age" usageType="active"/>
                                    <MiningField name="SibSp" usageType="active"/>
                                    <MiningField name="Parch" usageType="active"/>
                                    <MiningField name="Fare" usageType="active"/>
                                    <MiningField name="Sex_female" usageType="active"/>
                                    <MiningField name="Sex_male" usageType="active"/>
                                    <MiningField name="Embarked_C" usageType="active"/>
                                    <MiningField name="Embarked_Q" usageType="active"/>
                                    <MiningField name="Embarked_S" usageType="active"/>
                                </MiningSchema>
                                <Node>
                                    <True/>
                                    <Node>
                                        <SimplePredicate field="Sex_female" operator="lessThan" value="0.5000000000000000"/>
                                        <Node>
                                            <SimplePredicate field="Age" operator="lessThan" value="3.5000000000000000"/>
                                            <Node score="0.194184303">
                                                <SimplePredicate field="SibSp" operator="lessThan" value="1.5000000000000000"/>
                                            </Node>
                                            <Node score="-0.0297068991">
                                                <SimplePredicate field="SibSp" operator="greaterOrEqual" value="1.5000000000000000"/>
                                            </Node>
                                        </Node>
                                        <Node>
                                            <SimplePredicate field="Age" operator="greaterOrEqual" value="3.5000000000000000"/>
                                            <Node>
                                                <SimplePredicate field="Pclass" operator="lessThan" value="1.5000000000000000"/>
                                                <Node>
                                                    <SimplePredicate field="Age" operator="lessThan" value="27.5000000000000000"/>
                                                    <Node score="-0.115861811">
                                                        <SimplePredicate field="Age" operator="lessThan" value="23.5000000000000000"/>
                                                    </Node>
                                                    <Node score="0.282716006">
                                                        <SimplePredicate field="Age" operator="greaterOrEqual" value="23.5000000000000000"/>
                                                    </Node>
                                                </Node>
                                                <Node>
                                                    <SimplePredicate field="Age" operator="greaterOrEqual" value="27.5000000000000000"/>
                                                    <Node>
                                                        <SimplePredicate field="Age" operator="lessThan" value="31.5000000000000000"/>
                                                        <Node score="-0.051987879">
                                                            <SimplePredicate field="Fare" operator="lessThan" value="30.5000000000000000"/>
                                                        </Node>
                                                        <Node score="-0.236005664">
                                                            <SimplePredicate field="Fare" operator="greaterOrEqual" value="30.5000000000000000"/>
                                                        </Node>
                                                    </Node>
                                                    <Node>
                                                        <SimplePredicate field="Age" operator="greaterOrEqual" value="31.5000000000000000"/>
                                                        <Node score="0.128038138">
                                                            <SimplePredicate field="Age" operator="lessThan" value="38.5000000000000000"/>
                                                        </Node>
                                                        <Node score="-0.077074416">
                                                            <SimplePredicate field="Age" operator="greaterOrEqual" value="38.5000000000000000"/>
                                                        </Node>
                                                    </Node>
                                                </Node>
                                            </Node>
                                            <Node>
                                                <SimplePredicate field="Pclass" operator="greaterOrEqual" value="1.5000000000000000"/>
                                                <Node>
                                                    <SimplePredicate field="SibSp" operator="lessThan" value="2.5000000000000000"/>
                                                    <Node score="0.190089718">
                                                        <SimplePredicate field="Age" operator="lessThan" value="13.5000000000000000"/>
                                                    </Node>
                                                    <Node>
                                                        <SimplePredicate field="Age" operator="greaterOrEqual" value="13.5000000000000000"/>
                                                        <Node score="-0.156053945">
                                                            <SimplePredicate field="Fare" operator="lessThan" value="49.0374984999999981"/>
                                                        </Node>
                                                        <Node score="0.0400190204">
                                                            <SimplePredicate field="Fare" operator="greaterOrEqual" value="49.0374984999999981"/>
                                                        </Node>
                                                    </Node>
                                                </Node>
                                                <Node score="-0.285168141">
                                                    <SimplePredicate field="SibSp" operator="greaterOrEqual" value="2.5000000000000000"/>
                                                </Node>
                                            </Node>
                                        </Node>
                                    </Node>
                                    <Node>
                                        <SimplePredicate field="Sex_female" operator="greaterOrEqual" value="0.5000000000000000"/>
                                        <Node>
                                            <SimplePredicate field="Pclass" operator="lessThan" value="2.5000000000000000"/>
                                            <Node>
                                                <SimplePredicate field="Fare" operator="lessThan" value="149.0354000000000099"/>
                                                <Node score="0.281026393">
                                                    <SimplePredicate field="Age" operator="lessThan" value="49.5000000000000000"/>
                                                </Node>
                                                <Node score="0.0917699859">
                                                    <SimplePredicate field="Age" operator="greaterOrEqual" value="49.5000000000000000"/>
                                                </Node>
                                            </Node>
                                            <Node>
                                                <SimplePredicate field="Fare" operator="greaterOrEqual" value="149.0354000000000099"/>
                                                <Node score="-0.0622639693">
                                                    <SimplePredicate field="Age" operator="lessThan" value="27.0000000000000000"/>
                                                </Node>
                                                <Node score="0.20036827">
                                                    <SimplePredicate field="Age" operator="greaterOrEqual" value="27.0000000000000000"/>
                                                </Node>
                                            </Node>
                                        </Node>
                                        <Node>
                                            <SimplePredicate field="Pclass" operator="greaterOrEqual" value="2.5000000000000000"/>
                                            <Node>
                                                <SimplePredicate field="Embarked_S" operator="lessThan" value="0.5000000000000000"/>
                                                <Node>
                                                    <SimplePredicate field="Fare" operator="lessThan" value="15.3728999999999996"/>
                                                    <Node>
                                                        <SimplePredicate field="Fare" operator="lessThan" value="8.0833492299999996"/>
                                                        <Node score="-0.0598522574">
                                                            <SimplePredicate field="Fare" operator="lessThan" value="7.6812500999999997"/>
                                                        </Node>
                                                        <Node score="0.166941032">
                                                            <SimplePredicate field="Fare" operator="greaterOrEqual" value="7.6812500999999997"/>
                                                        </Node>
                                                    </Node>
                                                    <Node score="-0.106706597">
                                                        <SimplePredicate field="Fare" operator="greaterOrEqual" value="8.0833492299999996"/>
                                                    </Node>
                                                </Node>
                                                <Node score="0.232062891">
                                                    <SimplePredicate field="Fare" operator="greaterOrEqual" value="15.3728999999999996"/>
                                                </Node>
                                            </Node>
                                            <Node>
                                                <SimplePredicate field="Embarked_S" operator="greaterOrEqual" value="0.5000000000000000"/>
                                                <Node>
                                                    <SimplePredicate field="Fare" operator="lessThan" value="20.7999991999999985"/>
                                                    <Node>
                                                        <SimplePredicate field="Fare" operator="lessThan" value="10.8249998000000005"/>
                                                        <Node score="0.0393400006">
                                                            <SimplePredicate field="Fare" operator="lessThan" value="9.4125003800000009"/>
                                                        </Node>
                                                        <Node score="-0.294735938">
                                                            <SimplePredicate field="Fare" operator="greaterOrEqual" value="9.4125003800000009"/>
                                                        </Node>
                                                    </Node>
                                                    <Node>
                                                        <SimplePredicate field="Fare" operator="greaterOrEqual" value="10.8249998000000005"/>
                                                        <Node score="0.00802308042">
                                                            <SimplePredicate field="Parch" operator="lessThan" value="0.5000000000000000"/>
                                                        </Node>
                                                        <Node score="0.17893225">
                                                            <SimplePredicate field="Parch" operator="greaterOrEqual" value="0.5000000000000000"/>
                                                        </Node>
                                                    </Node>
                                                </Node>
                                                <Node>
                                                    <SimplePredicate field="Fare" operator="greaterOrEqual" value="20.7999991999999985"/>
                                                    <Node score="0.0165438652">
                                                        <SimplePredicate field="Age" operator="lessThan" value="6.5000000000000000"/>
                                                    </Node>
                                                    <Node score="-0.277264148">
                                                        <SimplePredicate field="Age" operator="greaterOrEqual" value="6.5000000000000000"/>
                                                    </Node>
                                                </Node>
                                            </Node>
                                        </Node>
                                    </Node>
                                </Node>
                            </TreeModel>
                        </Segment>
                        <Segment id="7" weight="1">
                            <True/>
                            <TreeModel modelName="DecisionTreeModel" functionName="regression" missingValuePenalty="1.0" noTrueChildStrategy="returnLastPrediction">
                                <MiningSchema>
                                    <MiningField name="Pclass" usageType="active"/>
                                    <MiningField name="Age" usageType="active"/>
                                    <MiningField name="SibSp" usageType="active"/>
                                    <MiningField name="Parch" usageType="active"/>
                                    <MiningField name="Fare" usageType="active"/>
                                    <MiningField name="Sex_female" usageType="active"/>
                                    <MiningField name="Sex_male" usageType="active"/>
                                    <MiningField name="Embarked_C" usageType="active"/>
                                    <MiningField name="Embarked_Q" usageType="active"/>
                                    <MiningField name="Embarked_S" usageType="active"/>
                                </MiningSchema>
                                <Node>
                                    <True/>
                                    <Node>
                                        <SimplePredicate field="Sex_female" operator="lessThan" value="0.5000000000000000"/>
                                        <Node>
                                            <SimplePredicate field="Fare" operator="lessThan" value="7.7458500900000002"/>
                                            <Node>
                                                <SimplePredicate field="Age" operator="lessThan" value="26.5000000000000000"/>
                                                <Node score="-0.200852692">
                                                    <SimplePredicate field="Age" operator="lessThan" value="21.5000000000000000"/>
                                                </Node>
                                                <Node score="0.161235884">
                                                    <SimplePredicate field="Age" operator="greaterOrEqual" value="21.5000000000000000"/>
                                                </Node>
                                            </Node>
                                            <Node score="-0.265333772">
                                                <SimplePredicate field="Age" operator="greaterOrEqual" value="26.5000000000000000"/>
                                            </Node>
                                        </Node>
                                        <Node>
                                            <SimplePredicate field="Fare" operator="greaterOrEqual" value="7.7458500900000002"/>
                                            <Node>
                                                <SimplePredicate field="SibSp" operator="lessThan" value="2.5000000000000000"/>
                                                <Node score="0.285032183">
                                                    <SimplePredicate field="Age" operator="lessThan" value="10.0000000000000000"/>
                                                </Node>
                                                <Node>
                                                    <SimplePredicate field="Age" operator="greaterOrEqual" value="10.0000000000000000"/>
                                                    <Node>
                                                        <SimplePredicate field="Embarked_C" operator="lessThan" value="0.5000000000000000"/>
                                                        <Node score="-0.075807929">
                                                            <SimplePredicate field="Parch" operator="lessThan" value="0.5000000000000000"/>
                                                        </Node>
                                                        <Node score="-0.241733953">
                                                            <SimplePredicate field="Parch" operator="greaterOrEqual" value="0.5000000000000000"/>
                                                        </Node>
                                                    </Node>
                                                    <Node>
                                                        <SimplePredicate field="Embarked_C" operator="greaterOrEqual" value="0.5000000000000000"/>
                                                        <Node score="-0.0207500756">
                                                            <SimplePredicate field="Age" operator="lessThan" value="47.0000000000000000"/>
                                                        </Node>
                                                        <Node score="0.153147563">
                                                            <SimplePredicate field="Age" operator="greaterOrEqual" value="47.0000000000000000"/>
                                                        </Node>
                                                    </Node>
                                                </Node>
                                            </Node>
                                            <Node score="-0.225616217">
                                                <SimplePredicate field="SibSp" operator="greaterOrEqual" value="2.5000000000000000"/>
                                            </Node>
                                        </Node>
                                    </Node>
                                    <Node>
                                        <SimplePredicate field="Sex_female" operator="greaterOrEqual" value="0.5000000000000000"/>
                                        <Node>
                                            <SimplePredicate field="Pclass" operator="lessThan" value="2.5000000000000000"/>
                                            <Node>
                                                <SimplePredicate field="Age" operator="lessThan" value="27.5000000000000000"/>
                                                <Node>
                                                    <SimplePredicate field="Age" operator="lessThan" value="23.5000000000000000"/>
                                                    <Node score="0.0439000912">
                                                        <SimplePredicate field="Age" operator="lessThan" value="14.5000000000000000"/>
                                                    </Node>
                                                    <Node score="0.221782938">
                                                        <SimplePredicate field="Age" operator="greaterOrEqual" value="14.5000000000000000"/>
                                                    </Node>
                                                </Node>
                                                <Node score="-0.041243352">
                                                    <SimplePredicate field="Age" operator="greaterOrEqual" value="23.5000000000000000"/>
                                                </Node>
                                            </Node>
                                            <Node>
                                                <SimplePredicate field="Age" operator="greaterOrEqual" value="27.5000000000000000"/>
                                                <Node score="0.284021229">
                                                    <SimplePredicate field="Age" operator="lessThan" value="49.5000000000000000"/>
                                                </Node>
                                                <Node score="0.0944604799">
                                                    <SimplePredicate field="Age" operator="greaterOrEqual" value="49.5000000000000000"/>
                                                </Node>
                                            </Node>
                                        </Node>
                                        <Node>
                                            <SimplePredicate field="Pclass" operator="greaterOrEqual" value="2.5000000000000000"/>
                                            <Node>
                                                <SimplePredicate field="Age" operator="lessThan" value="36.5000000000000000"/>
                                                <Node>
                                                    <SimplePredicate field="Age" operator="lessThan" value="30.5000000000000000"/>
                                                    <Node>
                                                        <SimplePredicate field="Embarked_S" operator="lessThan" value="0.5000000000000000"/>
                                                        <Node score="0.2081431">
                                                            <SimplePredicate field="Age" operator="lessThan" value="16.5000000000000000"/>
                                                        </Node>
                                                        <Node score="0.0248696338">
                                                            <SimplePredicate field="Age" operator="greaterOrEqual" value="16.5000000000000000"/>
                                                        </Node>
                                                    </Node>
                                                    <Node>
                                                        <SimplePredicate field="Embarked_S" operator="greaterOrEqual" value="0.5000000000000000"/>
                                                        <Node score="-0.00491615105">
                                                            <SimplePredicate field="Fare" operator="lessThan" value="17.3500003999999990"/>
                                                        </Node>
                                                        <Node score="-0.185447335">
                                                            <SimplePredicate field="Fare" operator="greaterOrEqual" value="17.3500003999999990"/>
                                                        </Node>
                                                    </Node>
                                                </Node>
                                                <Node score="0.207550362">
                                                    <SimplePredicate field="Age" operator="greaterOrEqual" value="30.5000000000000000"/>
                                                </Node>
                                            </Node>
                                            <Node score="-0.236578584">
                                                <SimplePredicate field="Age" operator="greaterOrEqual" value="36.5000000000000000"/>
                                            </Node>
                                        </Node>
                                    </Node>
                                </Node>
                            </TreeModel>
                        </Segment>
                        <Segment id="8" weight="1">
                            <True/>
                            <TreeModel modelName="DecisionTreeModel" functionName="regression" missingValuePenalty="1.0" noTrueChildStrategy="returnLastPrediction">
                                <MiningSchema>
                                    <MiningField name="Pclass" usageType="active"/>
                                    <MiningField name="Age" usageType="active"/>
                                    <MiningField name="SibSp" usageType="active"/>
                                    <MiningField name="Parch" usageType="active"/>
                                    <MiningField name="Fare" usageType="active"/>
                                    <MiningField name="Sex_female" usageType="active"/>
                                    <MiningField name="Sex_male" usageType="active"/>
                                    <MiningField name="Embarked_C" usageType="active"/>
                                    <MiningField name="Embarked_Q" usageType="active"/>
                                    <MiningField name="Embarked_S" usageType="active"/>
                                </MiningSchema>
                                <Node>
                                    <True/>
                                    <Node>
                                        <SimplePredicate field="Sex_female" operator="lessThan" value="0.5000000000000000"/>
                                        <Node>
                                            <SimplePredicate field="Fare" operator="lessThan" value="7.9104003900000004"/>
                                            <Node>
                                                <SimplePredicate field="Age" operator="lessThan" value="32.5000000000000000"/>
                                                <Node>
                                                    <SimplePredicate field="Age" operator="lessThan" value="28.7500000000000000"/>
                                                    <Node>
                                                        <SimplePredicate field="Fare" operator="lessThan" value="7.7979001999999999"/>
                                                        <Node score="-0.113994569">
                                                            <SimplePredicate field="Fare" operator="lessThan" value="7.7624998099999996"/>
                                                        </Node>
                                                        <Node score="0.185221046">
                                                            <SimplePredicate field="Fare" operator="greaterOrEqual" value="7.7624998099999996"/>
                                                        </Node>
                                                    </Node>
                                                    <Node score="-0.267007738">
